<?xml version="1.0"?>
<opencv_storage>
<cascade>
  <stageType>BOOST</stageType>
  <featureType>HAAR</featureType>
  <height>24</height>
  <width>24</width>
  <stageParams>
    <boostType>GAB</boostType>
    <minHitRate>9.9800002574920654e-01</minHitRate>
    <maxFalseAlarm>5.0000000000000000e-01</maxFalseAlarm>
    <weightTrimRate>9.4999999999999996e-01</weightTrimRate>
    <maxDepth>1</maxDepth>
    <maxWeakCount>100</maxWeakCount></stageParams>
  <featureParams>
    <maxCatCount>0</maxCatCount>
    <featSize>1</featSize>
    <mode>BASIC</mode></featureParams>
  <stageNum>12</stageNum>
  <stages>
    <!-- stage 0 -->
    <_>
      <maxWeakCount>10</maxWeakCount>
      <stageThreshold>-1.4400322437286377e+00</stageThreshold>
      <weakClassifiers>
        <_>
          <internalNodes>
            0 -1 69 -1.2196348607540131e-01</internalNodes>
          <leafValues>
            4.0740740299224854e-01 -6.7396593093872070e-01</leafValues></_>
        <_>
          <internalNodes>
            0 -1 51 3.0901964753866196e-02</internalNodes>
          <leafValues>
            -3.3517700433731079e-01 4.9763697385787964e-01</leafValues></_>
        <_>
          <internalNodes>
            0 -1 79 -3.4819083521142602e-04</internalNodes>
          <leafValues>
            3.6684215068817139e-01 -3.8588628172874451e-01</leafValues></_>
        <_>
          <internalNodes>
            0 -1 4 -1.0625478811562061e-02</internalNodes>
          <leafValues>
            -9.4858473539352417e-01 1.4115492999553680e-01</leafValues></_>
        <_>
          <internalNodes>
            0 -1 76 -2.5348770432174206e-03</internalNodes>
          <leafValues>
            2.9611080884933472e-01 -4.2767778038978577e-01</leafValues></_>
        <_>
          <internalNodes>
            0 -1 74 -2.7311937883496284e-02</internalNodes>
          <leafValues>
            5.8133196830749512e-01 -2.2903436422348022e-01</leafValues></_>
        <_>
          <internalNodes>
            0 -1 24 5.8044315665028989e-05</internalNodes>
          <leafValues>
            -3.3485317230224609e-01 4.5307508111000061e-01</leafValues></_>
        <_>
          <internalNodes>
            0 -1 157 -1.4322851784527302e-03</internalNodes>
          <leafValues>
            4.6874094009399414e-01 -2.9668572545051575e-01</leafValues></_>
        <_>
          <internalNodes>
            0 -1 116 2.3755026049911976e-03</internalNodes>
          <leafValues>
            1.8400679528713226e-01 -9.0455102920532227e-01</leafValues></_>
        <_>
          <internalNodes>
            0 -1 55 5.7393913157284260e-03</internalNodes>
          <leafValues>
            1.0771996527910233e-01 -8.1545805931091309e-01</leafValues></_></weakClassifiers></_>
    <!-- stage 1 -->
    <_>
      <maxWeakCount>10</maxWeakCount>
      <stageThreshold>-1.3036246299743652e+00</stageThreshold>
      <weakClassifiers>
        <_>
          <internalNodes>
            0 -1 45 4.5987110584974289e-02</internalNodes>
          <leafValues>
            -5.7017540931701660e-01 4.1666665673255920e-01</leafValues></_>
        <_>
          <internalNodes>
            0 -1 141 -1.6301237046718597e-02</internalNodes>
          <leafValues>
            3.1050017476081848e-01 -4.9351206421852112e-01</leafValues></_>
        <_>
          <internalNodes>
            0 -1 9 -1.6972649842500687e-02</internalNodes>
          <leafValues>
            -6.5866535902023315e-01 1.9713729619979858e-01</leafValues></_>
        <_>
          <internalNodes>
            0 -1 54 -3.2623431179672480e-03</internalNodes>
          <leafValues>
            3.0591365694999695e-01 -4.4518029689788818e-01</leafValues></_>
        <_>
          <internalNodes>
            0 -1 156 -2.8910362743772566e-04</internalNodes>
          <leafValues>
            4.2219668626785278e-01 -3.3858439326286316e-01</leafValues></_>
        <_>
          <internalNodes>
            0 -1 80 -6.1365833971649408e-04</internalNodes>
          <leafValues>
            3.4664031863212585e-01 -3.4520593285560608e-01</leafValues></_>
        <_>
          <internalNodes>
            0 -1 90 4.2910091578960419e-03</internalNodes>
          <leafValues>
            -3.5680091381072998e-01 3.7518352270126343e-01</leafValues></_>
        <_>
          <internalNodes>
            0 -1 68 6.4499198924750090e-04</internalNodes>
          <leafValues>
            -3.4731197357177734e-01 3.5968258976936340e-01</leafValues></_>
        <_>
          <internalNodes>
            0 -1 22 2.0249969384167343e-04</internalNodes>
          <leafValues>
            -3.0303308367729187e-01 4.1953667998313904e-01</leafValues></_>
        <_>
          <internalNodes>
            0 -1 142 -5.3125506383366883e-05</internalNodes>
          <leafValues>
            3.2440659403800964e-01 -4.1158434748649597e-01</leafValues></_></weakClassifiers></_>
    <!-- stage 2 -->
    <_>
      <maxWeakCount>12</maxWeakCount>
      <stageThreshold>-1.2609421014785767e+00</stageThreshold>
      <weakClassifiers>
        <_>
          <internalNodes>
            0 -1 18 7.1573741734027863e-02</internalNodes>
          <leafValues>
            -5.3648066520690918e-01 3.7313431501388550e-01</leafValues></_>
        <_>
          <internalNodes>
            0 -1 64 -9.5064844936132431e-04</internalNodes>
          <leafValues>
            2.5991898775100708e-01 -5.1193815469741821e-01</leafValues></_>
        <_>
          <internalNodes>
            0 -1 132 -9.7999942954629660e-04</internalNodes>
          <leafValues>
            3.2051563262939453e-01 -3.5612046718597412e-01</leafValues></_>
        <_>
          <internalNodes>
            0 -1 43 -2.4454895406961441e-02</internalNodes>
          <leafValues>
            5.1371210813522339e-01 -2.0914123952388763e-01</leafValues></_>
        <_>
          <internalNodes>
            0 -1 60 -4.7992733016144484e-05</internalNodes>
          <leafValues>
            3.3362171053886414e-01 -3.4561851620674133e-01</leafValues></_>
        <_>
          <internalNodes>
            0 -1 58 -2.9003072530031204e-02</internalNodes>
          <leafValues>
            -7.2629737854003906e-01 1.2804688513278961e-01</leafValues></_>
        <_>
          <internalNodes>
            0 -1 0 2.5768416002392769e-02</internalNodes>
          <leafValues>
            -2.3804014921188354e-01 5.0860577821731567e-01</leafValues></_>
        <_>
          <internalNodes>
            0 -1 131 -4.3964274227619171e-03</internalNodes>
          <leafValues>
            4.2074900865554810e-01 -2.5993490219116211e-01</leafValues></_>
        <_>
          <internalNodes>
            0 -1 113 -3.8785855285823345e-03</internalNodes>
          <leafValues>
            -6.2409973144531250e-01 1.8266367912292480e-01</leafValues></_>
        <_>
          <internalNodes>
            0 -1 139 8.5634626448154449e-03</internalNodes>
          <leafValues>
            -2.3883207142353058e-01 5.0586694478988647e-01</leafValues></_>
        <_>
          <internalNodes>
            0 -1 103 -8.7556603830307722e-05</internalNodes>
          <leafValues>
            2.8692084550857544e-01 -4.0804362297058105e-01</leafValues></_>
        <_>
          <internalNodes>
            0 -1 88 -7.0323180407285690e-03</internalNodes>
          <leafValues>
            -5.7984942197799683e-01 1.6867537796497345e-01</leafValues></_></weakClassifiers></_>
    <!-- stage 3 -->
    <_>
      <maxWeakCount>13</maxWeakCount>
      <stageThreshold>-1.1970056295394897e+00</stageThreshold>
      <weakClassifiers>
        <_>
          <internalNodes>
            0 -1 33 -1.5191024541854858e-01</internalNodes>
          <leafValues>
            -5.5991286039352417e-01 4.0425533056259155e-01</leafValues></_>
        <_>
          <internalNodes>
            0 -1 34 1.1949373409152031e-02</internalNodes>
          <leafValues>
            -3.1462088227272034e-01 4.1657865047454834e-01</leafValues></_>
        <_>
          <internalNodes>
            0 -1 167 -9.7216721624135971e-03</internalNodes>
          <leafValues>
            -7.7545565366744995e-01 1.4424116909503937e-01</leafValues></_>
        <_>
          <internalNodes>
            0 -1 125 -2.4855579249560833e-03</internalNodes>
          <leafValues>
            3.0415135622024536e-01 -3.5492232441902161e-01</leafValues></_>
        <_>
          <internalNodes>
            0 -1 93 5.2475044503808022e-04</internalNodes>
          <leafValues>
            1.2719134986400604e-01 -7.6008975505828857e-01</leafValues></_>
        <_>
          <internalNodes>
            0 -1 91 -5.8973534032702446e-03</internalNodes>
          <leafValues>
            3.3416315913200378e-01 -2.8496500849723816e-01</leafValues></_>
        <_>
          <internalNodes>
            0 -1 2 -4.4798348098993301e-02</internalNodes>
          <leafValues>
            4.0060004591941833e-01 -2.3810483515262604e-01</leafValues></_>
        <_>
          <internalNodes>
            0 -1 19 2.2387741133570671e-02</internalNodes>
          <leafValues>
            -1.5692399442195892e-01 5.5321043729782104e-01</leafValues></_>
        <_>
          <internalNodes>
            0 -1 117 1.3132128864526749e-02</internalNodes>
          <leafValues>
            -2.0927833020687103e-01 4.8987522721290588e-01</leafValues></_>
        <_>
          <internalNodes>
            0 -1 62 -1.1175293475389481e-03</internalNodes>
          <leafValues>
            -6.3097023963928223e-01 1.6440969705581665e-01</leafValues></_>
        <_>
          <internalNodes>
            0 -1 6 -3.1310658901929855e-02</internalNodes>
          <leafValues>
            4.0703591704368591e-01 -2.4978612363338470e-01</leafValues></_>
        <_>
          <internalNodes>
            0 -1 109 4.7833789139986038e-03</internalNodes>
          <leafValues>
            1.2914200127124786e-01 -9.0546607971191406e-01</leafValues></_>
        <_>
          <internalNodes>
            0 -1 147 -4.7974602784961462e-04</internalNodes>
          <leafValues>
            -5.1170742511749268e-01 1.9695873558521271e-01</leafValues></_></weakClassifiers></_>
    <!-- stage 4 -->
    <_>
      <maxWeakCount>13</maxWeakCount>
      <stageThreshold>-1.1727950572967529e+00</stageThreshold>
      <weakClassifiers>
        <_>
          <internalNodes>
            0 -1 17 -2.6495641097426414e-02</internalNodes>
          <leafValues>
            -6.5088754892349243e-01 7.6335877180099487e-02</leafValues></_>
        <_>
          <internalNodes>
            0 -1 144 -1.8027764745056629e-03</internalNodes>
          <leafValues>
            2.6305231451988220e-01 -4.0823444724082947e-01</leafValues></_>
        <_>
          <internalNodes>
            0 -1 82 2.1027380228042603e-01</internalNodes>
          <leafValues>
            1.3513433933258057e-01 -7.7360129356384277e-01</leafValues></_>
        <_>
          <internalNodes>
            0 -1 161 -2.1294601261615753e-02</internalNodes>
          <leafValues>
            -3.6445578932762146e-01 3.5873389244079590e-01</leafValues></_>
        <_>
          <internalNodes>
            0 -1 163 7.5816446915268898e-03</internalNodes>
          <leafValues>
            -2.2325761616230011e-01 7.0561254024505615e-01</leafValues></_>
        <_>
          <internalNodes>
            0 -1 162 -2.4877320975065231e-02</internalNodes>
          <leafValues>
            6.8176364898681641e-01 -1.4012338221073151e-01</leafValues></_>
        <_>
          <internalNodes>
            0 -1 158 2.4356914218515158e-03</internalNodes>
          <leafValues>
            -2.2303330898284912e-01 4.8363658785820007e-01</leafValues></_>
        <_>
          <internalNodes>
            0 -1 21 -2.1705504506826401e-02</internalNodes>
          <leafValues>
            -1. 1.4089360833168030e-01</leafValues></_>
        <_>
          <internalNodes>
            0 -1 70 -2.3638159036636353e-03</internalNodes>
          <leafValues>
            3.1150203943252563e-01 -3.6487919092178345e-01</leafValues></_>
        <_>
          <internalNodes>
            0 -1 111 -1.0371949523687363e-02</internalNodes>
          <leafValues>
            1.3080672919750214e-01 -7.8623372316360474e-01</leafValues></_>
        <_>
          <internalNodes>
            0 -1 151 -4.4415105367079377e-04</internalNodes>
          <leafValues>
            -6.2006634473800659e-01 1.2261387705802917e-01</leafValues></_>
        <_>
          <internalNodes>
            0 -1 14 1.4642763882875443e-02</internalNodes>
          <leafValues>
            -2.0595611631870270e-01 5.0103724002838135e-01</leafValues></_>
        <_>
          <internalNodes>
            0 -1 97 -5.1005125045776367e-02</internalNodes>
          <leafValues>
            -3.9335718750953674e-01 2.7218073606491089e-01</leafValues></_></weakClassifiers></_>
    <!-- stage 5 -->
    <_>
      <maxWeakCount>10</maxWeakCount>
      <stageThreshold>-1.1512199640274048e+00</stageThreshold>
      <weakClassifiers>
        <_>
          <internalNodes>
            0 -1 46 8.3068264648318291e-03</internalNodes>
          <leafValues>
            -6.2051284313201904e-01 2.0000000298023224e-01</leafValues></_>
        <_>
          <internalNodes>
            0 -1 23 2.4057808332145214e-03</internalNodes>
          <leafValues>
            -3.3464616537094116e-01 3.5207659006118774e-01</leafValues></_>
        <_>
          <internalNodes>
            0 -1 25 -4.8440054059028625e-02</internalNodes>
          <leafValues>
            6.3631689548492432e-01 -1.7709723114967346e-01</leafValues></_>
        <_>
          <internalNodes>
            0 -1 12 2.4389706552028656e-02</internalNodes>
          <leafValues>
            -1.6174446046352386e-01 6.1561763286590576e-01</leafValues></_>
        <_>
          <internalNodes>
            0 -1 128 3.0067725107073784e-02</internalNodes>
          <leafValues>
            -2.9801756143569946e-01 3.3036068081855774e-01</leafValues></_>
        <_>
          <internalNodes>
            0 -1 100 -1.0893451981246471e-03</internalNodes>
          <leafValues>
            -5.5104434490203857e-01 1.7719276249408722e-01</leafValues></_>
        <_>
          <internalNodes>
            0 -1 36 1.4300040900707245e-02</internalNodes>
          <leafValues>
            -2.0526541769504547e-01 4.6260291337966919e-01</leafValues></_>
        <_>
          <internalNodes>
            0 -1 7 3.9639301598072052e-02</internalNodes>
          <leafValues>
            -1.2494407594203949e-01 7.4605309963226318e-01</leafValues></_>
        <_>
          <internalNodes>
            0 -1 104 3.5900059156119823e-03</internalNodes>
          <leafValues>
            1.3918380439281464e-01 -6.6736477613449097e-01</leafValues></_>
        <_>
          <internalNodes>
            0 -1 84 1.1089404113590717e-02</internalNodes>
          <leafValues>
            -2.2740535438060760e-01 4.4776561856269836e-01</leafValues></_></weakClassifiers></_>
    <!-- stage 6 -->
    <_>
      <maxWeakCount>14</maxWeakCount>
      <stageThreshold>-1.1894876956939697e+00</stageThreshold>
      <weakClassifiers>
        <_>
          <internalNodes>
            0 -1 44 -2.4531261995434761e-02</internalNodes>
          <leafValues>
            -4.7305390238761902e-01 3.7373736500740051e-01</leafValues></_>
        <_>
          <internalNodes>
            0 -1 137 1.1522106826305389e-02</internalNodes>
          <leafValues>
            -2.1528103947639465e-01 4.0444594621658325e-01</leafValues></_>
        <_>
          <internalNodes>
            0 -1 56 -8.6379563435912132e-04</internalNodes>
          <leafValues>
            1.9942070543766022e-01 -3.8605684041976929e-01</leafValues></_>
        <_>
          <internalNodes>
            0 -1 87 -1.1986992321908474e-03</internalNodes>
          <leafValues>
            -7.1171444654464722e-01 1.2830644845962524e-01</leafValues></_>
        <_>
          <internalNodes>
            0 -1 127 -5.0878923502750695e-05</internalNodes>
          <leafValues>
            1.9546858966350555e-01 -3.7964746356010437e-01</leafValues></_>
        <_>
          <internalNodes>
            0 -1 10 2.8339672833681107e-02</internalNodes>
          <leafValues>
            -1.0661885142326355e-01 6.3398754596710205e-01</leafValues></_>
        <_>
          <internalNodes>
            0 -1 146 4.9086054787039757e-04</internalNodes>
          <leafValues>
            9.9062547087669373e-02 -7.5330656766891479e-01</leafValues></_>
        <_>
          <internalNodes>
            0 -1 78 4.8571632942184806e-04</internalNodes>
          <leafValues>
            1.3094402849674225e-01 -5.2446973323822021e-01</leafValues></_>
        <_>
          <internalNodes>
            0 -1 145 -1.3363586738705635e-02</internalNodes>
          <leafValues>
            4.1896381974220276e-01 -2.1277718245983124e-01</leafValues></_>
        <_>
          <internalNodes>
            0 -1 101 6.9887852296233177e-03</internalNodes>
          <leafValues>
            -2.0460152626037598e-01 3.6505904793739319e-01</leafValues></_>
        <_>
          <internalNodes>
            0 -1 16 1.6219634562730789e-02</internalNodes>
          <leafValues>
            -2.5315314531326294e-01 3.1918558478355408e-01</leafValues></_>
        <_>
          <internalNodes>
            0 -1 11 -1.2593748047947884e-02</internalNodes>
          <leafValues>
            -2.9819855093955994e-01 2.6959460973739624e-01</leafValues></_>
        <_>
          <internalNodes>
            0 -1 96 -1.9831745885312557e-03</internalNodes>
          <leafValues>
            2.3625762760639191e-01 -3.6329087615013123e-01</leafValues></_>
        <_>
          <internalNodes>
            0 -1 135 1.1389915598556399e-03</internalNodes>
          <leafValues>
            1.7673057317733765e-01 -4.9206694960594177e-01</leafValues></_></weakClassifiers></_>
    <!-- stage 7 -->
    <_>
      <maxWeakCount>10</maxWeakCount>
      <stageThreshold>-9.3784391880035400e-01</stageThreshold>
      <weakClassifiers>
        <_>
          <internalNodes>
            0 -1 59 -2.1765676140785217e-01</internalNodes>
          <leafValues>
            4.5045044273138046e-02 -5.5555558204650879e-01</leafValues></_>
        <_>
          <internalNodes>
            0 -1 71 -1.0810580570250750e-03</internalNodes>
          <leafValues>
            -6.3104051351547241e-01 1.0785094648599625e-01</leafValues></_>
        <_>
          <internalNodes>
            0 -1 107 9.1233244165778160e-04</internalNodes>
          <leafValues>
            8.1355519592761993e-02 -8.2678800821304321e-01</leafValues></_>
        <_>
          <internalNodes>
            0 -1 66 -5.2261829376220703e-02</internalNodes>
          <leafValues>
            2.6228860020637512e-01 -2.7299988269805908e-01</leafValues></_>
        <_>
          <internalNodes>
            0 -1 108 -7.1490136906504631e-04</internalNodes>
          <leafValues>
            2.4325601756572723e-01 -3.4067746996879578e-01</leafValues></_>
        <_>
          <internalNodes>
            0 -1 1 -1.7684003710746765e-01</internalNodes>
          <leafValues>
            7.5447410345077515e-01 -1.1718010157346725e-01</leafValues></_>
        <_>
          <internalNodes>
            0 -1 102 -1.1535515077412128e-03</internalNodes>
          <leafValues>
            -7.4041652679443359e-01 1.2786941230297089e-01</leafValues></_>
        <_>
          <internalNodes>
            0 -1 134 3.4099213778972626e-02</internalNodes>
          <leafValues>
            -1.8096362054347992e-01 4.6351578831672668e-01</leafValues></_>
        <_>
          <internalNodes>
            0 -1 153 -1.5415910165756941e-03</internalNodes>
          <leafValues>
            -6.1416399478912354e-01 1.3770599663257599e-01</leafValues></_>
        <_>
          <internalNodes>
            0 -1 81 -5.4763900116086006e-03</internalNodes>
          <leafValues>
            -8.8130581378936768e-01 7.4750840663909912e-02</leafValues></_></weakClassifiers></_>
    <!-- stage 8 -->
    <_>
      <maxWeakCount>18</maxWeakCount>
      <stageThreshold>-1.1423254013061523e+00</stageThreshold>
      <weakClassifiers>
        <_>
          <internalNodes>
            0 -1 3 3.6003604531288147e-02</internalNodes>
          <leafValues>
            -4.3968871235847473e-01 3.0232557654380798e-01</leafValues></_>
        <_>
          <internalNodes>
            0 -1 110 -3.6136817652732134e-04</internalNodes>
          <leafValues>
            -4.3912708759307861e-01 1.5291923284530640e-01</leafValues></_>
        <_>
          <internalNodes>
            0 -1 48 -2.9330516699701548e-03</internalNodes>
          <leafValues>
            2.9091489315032959e-01 -2.3091742396354675e-01</leafValues></_>
        <_>
          <internalNodes>
            0 -1 31 -6.0114199295639992e-03</internalNodes>
          <leafValues>
            5.0435388088226318e-01 -1.2768453359603882e-01</leafValues></_>
        <_>
          <internalNodes>
            0 -1 166 -8.3674620836973190e-03</internalNodes>
          <leafValues>
            6.3710778951644897e-01 -5.7240560650825500e-02</leafValues></_>
        <_>
          <internalNodes>
            0 -1 77 -1.1469612363725901e-03</internalNodes>
          <leafValues>
            2.0513233542442322e-01 -3.4808921813964844e-01</leafValues></_>
        <_>
          <internalNodes>
            0 -1 130 3.1397124985232949e-05</internalNodes>
          <leafValues>
            -2.7911558747291565e-01 2.5315594673156738e-01</leafValues></_>
        <_>
          <internalNodes>
            0 -1 98 8.1567984307184815e-04</internalNodes>
          <leafValues>
            1.3842141628265381e-01 -5.6264561414718628e-01</leafValues></_>
        <_>
          <internalNodes>
            0 -1 53 -3.6652064882218838e-03</internalNodes>
          <leafValues>
            -3.3279731869697571e-01 2.2168256342411041e-01</leafValues></_>
        <_>
          <internalNodes>
            0 -1 65 4.0718168020248413e-03</internalNodes>
          <leafValues>
            -1.7685618996620178e-01 4.3732917308807373e-01</leafValues></_>
        <_>
          <internalNodes>
            0 -1 61 -1.0446633677929640e-03</internalNodes>
          <leafValues>
            -6.3797587156295776e-01 1.2752443552017212e-01</leafValues></_>
        <_>
          <internalNodes>
            0 -1 75 -1.8390187621116638e-01</internalNodes>
          <leafValues>
            5.9468351304531097e-02 -9.0818464756011963e-01</leafValues></_>
        <_>
          <internalNodes>
            0 -1 143 -8.6171418428421021e-02</internalNodes>
          <leafValues>
            -1.1727103590965271e-01 6.1940836906433105e-01</leafValues></_>
        <_>
          <internalNodes>
            0 -1 42 3.9688865654170513e-03</internalNodes>
          <leafValues>
            -1.3345453143119812e-01 4.6254765987396240e-01</leafValues></_>
        <_>
          <internalNodes>
            0 -1 49 6.5379790030419827e-03</internalNodes>
          <leafValues>
            -1.3614583015441895e-01 5.2576172351837158e-01</leafValues></_>
        <_>
          <internalNodes>
            0 -1 115 -2.7034414233639836e-04</internalNodes>
          <leafValues>
            2.0297537744045258e-01 -3.5293918848037720e-01</leafValues></_>
        <_>
          <internalNodes>
            0 -1 138 2.5836305576376617e-04</internalNodes>
          <leafValues>
            1.4599667489528656e-01 -4.7476842999458313e-01</leafValues></_>
        <_>
          <internalNodes>
            0 -1 30 -1.9294330850243568e-03</internalNodes>
          <leafValues>
            3.9947021007537842e-01 -1.8473395705223083e-01</leafValues></_></weakClassifiers></_>
    <!-- stage 9 -->
    <_>
      <maxWeakCount>16</maxWeakCount>
      <stageThreshold>-1.1378277540206909e+00</stageThreshold>
      <weakClassifiers>
        <_>
          <internalNodes>
            0 -1 119 -2.7658220380544662e-02</internalNodes>
          <leafValues>
            1.7766498029232025e-01 -5.8312654495239258e-01</leafValues></_>
        <_>
          <internalNodes>
            0 -1 57 -8.3230715245008469e-03</internalNodes>
          <leafValues>
            7.4045538902282715e-02 -8.7289524078369141e-01</leafValues></_>
        <_>
          <internalNodes>
            0 -1 20 5.3716340335085988e-04</internalNodes>
          <leafValues>
            -1.6254746913909912e-01 7.3318308591842651e-01</leafValues></_>
        <_>
          <internalNodes>
            0 -1 86 -3.7838435673620552e-05</internalNodes>
          <leafValues>
            2.9037523269653320e-01 -3.3754649758338928e-01</leafValues></_>
        <_>
          <internalNodes>
            0 -1 41 5.9707905165851116e-04</internalNodes>
          <leafValues>
            -2.1813389658927917e-01 5.3258651494979858e-01</leafValues></_>
        <_>
          <internalNodes>
            0 -1 136 -6.8746255710721016e-03</internalNodes>
          <leafValues>
            -7.6531010866165161e-01 1.5243956446647644e-01</leafValues></_>
        <_>
          <internalNodes>
            0 -1 164 4.0575619786977768e-03</internalNodes>
          <leafValues>
            -1.7149607837200165e-01 7.7268278598785400e-01</leafValues></_>
        <_>
          <internalNodes>
            0 -1 121 3.1746611930429935e-03</internalNodes>
          <leafValues>
            -7.7813848853111267e-02 7.0026320219039917e-01</leafValues></_>
        <_>
          <internalNodes>
            0 -1 149 -8.6147061665542424e-05</internalNodes>
          <leafValues>
            1.9895312190055847e-01 -4.6293124556541443e-01</leafValues></_>
        <_>
          <internalNodes>
            0 -1 37 2.7987556532025337e-03</internalNodes>
          <leafValues>
            -1.6270755231380463e-01 6.3464432954788208e-01</leafValues></_>
        <_>
          <internalNodes>
            0 -1 13 -4.3690124584827572e-05</internalNodes>
          <leafValues>
            3.5471013188362122e-01 -2.9089778661727905e-01</leafValues></_>
        <_>
          <internalNodes>
            0 -1 124 -6.4793683588504791e-02</internalNodes>
          <leafValues>
            1.1660981923341751e-01 -9.5896953344345093e-01</leafValues></_>
        <_>
          <internalNodes>
            0 -1 168 -1.9030410330742598e-03</internalNodes>
          <leafValues>
            5.4539263248443604e-01 -2.0082375407218933e-01</leafValues></_>
        <_>
          <internalNodes>
            0 -1 126 -1.2712877942249179e-03</internalNodes>
          <leafValues>
            -6.3512372970581055e-01 1.5989856421947479e-01</leafValues></_>
        <_>
          <internalNodes>
            0 -1 52 -4.6199113130569458e-03</internalNodes>
          <leafValues>
            7.7946633100509644e-01 -1.3972118496894836e-01</leafValues></_>
        <_>
          <internalNodes>
            0 -1 155 -1.2549797538667917e-03</internalNodes>
          <leafValues>
            6.6676181554794312e-01 -1.2288144230842590e-01</leafValues></_></weakClassifiers></_>
    <!-- stage 10 -->
    <_>
      <maxWeakCount>22</maxWeakCount>
      <stageThreshold>-1.1739171743392944e+00</stageThreshold>
      <weakClassifiers>
        <_>
          <internalNodes>
            0 -1 73 2.2375922650098801e-02</internalNodes>
          <leafValues>
            -4.5199999213218689e-01 2.5999999046325684e-01</leafValues></_>
        <_>
          <internalNodes>
            0 -1 171 -3.3976701088249683e-03</internalNodes>
          <leafValues>
            5.1332390308380127e-01 -1.4153911173343658e-01</leafValues></_>
        <_>
          <internalNodes>
            0 -1 165 8.6408499628305435e-03</internalNodes>
          <leafValues>
            -1.1663255095481873e-01 5.3391635417938232e-01</leafValues></_>
        <_>
          <internalNodes>
            0 -1 27 -1.8824965227395296e-03</internalNodes>
          <leafValues>
            2.4428433179855347e-01 -2.7842599153518677e-01</leafValues></_>
        <_>
          <internalNodes>
            0 -1 105 -2.1341456100344658e-02</internalNodes>
          <leafValues>
            -7.8377521038055420e-01 7.5565606355667114e-02</leafValues></_>
        <_>
          <internalNodes>
            0 -1 140 -2.5778565555810928e-02</internalNodes>
          <leafValues>
            8.0309025943279266e-02 -7.7218735218048096e-01</leafValues></_>
        <_>
          <internalNodes>
            0 -1 118 -2.4662050418555737e-04</internalNodes>
          <leafValues>
            2.8365999460220337e-01 -2.4390603601932526e-01</leafValues></_>
        <_>
          <internalNodes>
            0 -1 170 1.0865412652492523e-02</internalNodes>
          <leafValues>
            -1.1056859791278839e-01 6.5697485208511353e-01</leafValues></_>
        <_>
          <internalNodes>
            0 -1 133 -6.7394590587355196e-05</internalNodes>
          <leafValues>
            2.0797869563102722e-01 -3.0708670616149902e-01</leafValues></_>
        <_>
          <internalNodes>
            0 -1 67 8.3547299727797508e-03</internalNodes>
          <leafValues>
            -1.3381633162498474e-01 4.6305632591247559e-01</leafValues></_>
        <_>
          <internalNodes>
            0 -1 150 -2.5107571855187416e-04</internalNodes>
          <leafValues>
            3.3824127912521362e-01 -1.9100801646709442e-01</leafValues></_>
        <_>
          <internalNodes>
            0 -1 35 -4.1001690551638603e-03</internalNodes>
          <leafValues>
            6.1552709341049194e-01 -1.2231057882308960e-01</leafValues></_>
        <_>
          <internalNodes>
            0 -1 160 1.0519958101212978e-02</internalNodes>
          <leafValues>
            -1.2505874037742615e-01 5.2774798870086670e-01</leafValues></_>
        <_>
          <internalNodes>
            0 -1 99 5.0910690333694220e-04</internalNodes>
          <leafValues>
            -1.6889944672584534e-01 3.6592125892639160e-01</leafValues></_>
        <_>
          <internalNodes>
            0 -1 63 -1.0294102132320404e-02</internalNodes>
          <leafValues>
            2.9684209823608398e-01 -2.3652154207229614e-01</leafValues></_>
        <_>
          <internalNodes>
            0 -1 29 1.9810132682323456e-02</internalNodes>
          <leafValues>
            -1.5241597592830658e-01 5.1602721214294434e-01</leafValues></_>
        <_>
          <internalNodes>
            0 -1 8 -7.6135431299917400e-05</internalNodes>
          <leafValues>
            2.8699234127998352e-01 -2.4770021438598633e-01</leafValues></_>
        <_>
          <internalNodes>
            0 -1 159 -3.4610313014127314e-04</internalNodes>
          <leafValues>
            2.7030676603317261e-01 -2.5013139843940735e-01</leafValues></_>
        <_>
          <internalNodes>
            0 -1 154 -9.6964482218027115e-03</internalNodes>
          <leafValues>
            4.9175575375556946e-01 -1.2947432696819305e-01</leafValues></_>
        <_>
          <internalNodes>
            0 -1 114 -1.7755511216819286e-03</internalNodes>
          <leafValues>
            2.7842044830322266e-01 -2.5667580962181091e-01</leafValues></_>
        <_>
          <internalNodes>
            0 -1 28 6.6290991380810738e-03</internalNodes>
          <leafValues>
            -7.7635586261749268e-02 7.9385310411453247e-01</leafValues></_>
        <_>
          <internalNodes>
            0 -1 40 -8.1447017146274447e-04</internalNodes>
          <leafValues>
            2.9602041840553284e-01 -2.1465863287448883e-01</leafValues></_></weakClassifiers></_>
    <!-- stage 11 -->
    <_>
      <maxWeakCount>24</maxWeakCount>
      <stageThreshold>-1.1050413846969604e+00</stageThreshold>
      <weakClassifiers>
        <_>
          <internalNodes>
            0 -1 94 -4.0446536149829626e-04</internalNodes>
          <leafValues>
            -7.0707067847251892e-02 -5.9075909852981567e-01</leafValues></_>
        <_>
          <internalNodes>
            0 -1 5 5.7353070005774498e-03</internalNodes>
          <leafValues>
            -1.9823530316352844e-01 3.9366936683654785e-01</leafValues></_>
        <_>
          <internalNodes>
            0 -1 123 -2.1551931276917458e-03</internalNodes>
          <leafValues>
            2.6195770502090454e-01 -2.4529355764389038e-01</leafValues></_>
        <_>
          <internalNodes>
            0 -1 32 2.1556671708822250e-02</internalNodes>
          <leafValues>
            -1.5760989487171173e-01 3.7575468420982361e-01</leafValues></_>
        <_>
          <internalNodes>
            0 -1 15 -1.3722769916057587e-02</internalNodes>
          <leafValues>
            5.3753501176834106e-01 -1.2332452088594437e-01</leafValues></_>
        <_>
          <internalNodes>
            0 -1 85 -2.8465013951063156e-02</internalNodes>
          <leafValues>
            -7.2409379482269287e-01 1.4224363863468170e-01</leafValues></_>
        <_>
          <internalNodes>
            0 -1 95 -3.7944344512652606e-05</internalNodes>
          <leafValues>
            1.0204233229160309e-01 -3.9929535984992981e-01</leafValues></_>
        <_>
          <internalNodes>
            0 -1 129 5.3670648485422134e-03</internalNodes>
          <leafValues>
            -1.6404192149639130e-01 3.6095935106277466e-01</leafValues></_>
        <_>
          <internalNodes>
            0 -1 120 2.0129790063947439e-03</internalNodes>
          <leafValues>
            -2.4627310037612915e-01 2.5486144423484802e-01</leafValues></_>
        <_>
          <internalNodes>
            0 -1 50 5.2573485299944878e-03</internalNodes>
          <leafValues>
            -1.9244782626628876e-01 3.2759135961532593e-01</leafValues></_>
        <_>
          <internalNodes>
            0 -1 112 -1.8642384558916092e-02</internalNodes>
          <leafValues>
            3.8571986556053162e-01 -1.6372977197170258e-01</leafValues></_>
        <_>
          <internalNodes>
            0 -1 169 -4.6851462684571743e-04</internalNodes>
          <leafValues>
            2.7643343806266785e-01 -2.1231743693351746e-01</leafValues></_>
        <_>
          <internalNodes>
            0 -1 26 -5.5571561679244041e-03</internalNodes>
          <leafValues>
            -5.0656652450561523e-01 1.5065552294254303e-01</leafValues></_>
        <_>
          <internalNodes>
            0 -1 152 1.2792246707249433e-04</internalNodes>
          <leafValues>
            1.6903297603130341e-01 -3.7912207841873169e-01</leafValues></_>
        <_>
          <internalNodes>
            0 -1 122 3.3067158074118197e-04</internalNodes>
          <leafValues>
            -1.7779573798179626e-01 4.4814649224281311e-01</leafValues></_>
        <_>
          <internalNodes>
            0 -1 89 4.0754778310656548e-03</internalNodes>
          <leafValues>
            1.1254571378231049e-01 -7.4061834812164307e-01</leafValues></_>
        <_>
          <internalNodes>
            0 -1 47 4.2045824229717255e-03</internalNodes>
          <leafValues>
            -1.2047109007835388e-01 6.2996339797973633e-01</leafValues></_>
        <_>
          <internalNodes>
            0 -1 72 -1.4549519866704941e-02</internalNodes>
          <leafValues>
            -9.0388411283493042e-01 7.2675555944442749e-02</leafValues></_>
        <_>
          <internalNodes>
            0 -1 83 -6.4047779887914658e-03</internalNodes>
          <leafValues>
            6.3157474994659424e-01 -1.1022076755762100e-01</leafValues></_>
        <_>
          <internalNodes>
            0 -1 106 -7.2779908776283264e-02</internalNodes>
          <leafValues>
            4.4561201333999634e-01 -1.5351204574108124e-01</leafValues></_>
        <_>
          <internalNodes>
            0 -1 148 3.1530340202152729e-03</internalNodes>
          <leafValues>
            -2.9712441563606262e-01 2.7053862810134888e-01</leafValues></_>
        <_>
          <internalNodes>
            0 -1 39 9.5714512281119823e-04</internalNodes>
          <leafValues>
            -6.8906195461750031e-02 8.1018936634063721e-01</leafValues></_>
        <_>
          <internalNodes>
            0 -1 92 -8.9215926826000214e-02</internalNodes>
          <leafValues>
            -6.7591744661331177e-01 1.0232934355735779e-01</leafValues></_>
        <_>
          <internalNodes>
            0 -1 38 4.3327198363840580e-04</internalNodes>
          <leafValues>
            -2.6176595687866211e-01 2.3243926465511322e-01</leafValues></_></weakClassifiers></_></stages>
  <features>
    <_>
      <rects>
        <_>
          0 0 22 6 -1.</_>
        <_>
          0 0 11 3 2.</_>
        <_>
          11 3 11 3 2.</_></rects>
      <tilted>0</tilted></_>
    <_>
      <rects>
        <_>
          0 0 24 18 -1.</_>
        <_>
          0 0 12 9 2.</_>
        <_>
          12 9 12 9 2.</_></rects>
      <tilted>0</tilted></_>
    <_>
      <rects>
        <_>
          0 3 14 16 -1.</_>
        <_>
          0 3 7 8 2.</_>
        <_>
          7 11 7 8 2.</_></rects>
      <tilted>0</tilted></_>
    <_>
      <rects>
        <_>
          0 4 6 7 -1.</_>
        <_>
          3 4 3 7 2.</_></rects>
      <tilted>0</tilted></_>
    <_>
      <rects>
        <_>
          0 5 1 3 -1.</_>
        <_>
          0 6 1 1 2.</_></rects>
      <tilted>0</tilted></_>
    <_>
      <rects>
        <_>
          0 5 2 19 -1.</_>
        <_>
          1 5 1 19 2.</_></rects>
      <tilted>0</tilted></_>
    <_>
      <rects>
        <_>
          0 6 10 14 -1.</_>
        <_>
          0 6 5 7 2.</_>
        <_>
          5 13 5 7 2.</_></rects>
      <tilted>0</tilted></_>
    <_>
      <rects>
        <_>
          0 7 12 8 -1.</_>
        <_>
          0 7 6 4 2.</_>
        <_>
          6 11 6 4 2.</_></rects>
      <tilted>0</tilted></_>
    <_>
      <rects>
        <_>
          0 8 6 2 -1.</_>
        <_>
          0 8 3 1 2.</_>
        <_>
          3 9 3 1 2.</_></rects>
      <tilted>0</tilted></_>
    <_>
      <rects>
        <_>
          0 10 3 2 -1.</_>
        <_>
          1 10 1 2 2.</_></rects>
      <tilted>0</tilted></_>
    <_>
      <rects>
        <_>
          0 11 7 10 -1.</_>
        <_>
          0 16 7 5 2.</_></rects>
      <tilted>0</tilted></_>
    <_>
      <rects>
        <_>
          0 12 3 2 -1.</_>
        <_>
          1 12 1 2 2.</_></rects>
      <tilted>0</tilted></_>
    <_>
      <rects>
        <_>
          0 13 6 11 -1.</_>
        <_>
          3 13 3 11 2.</_></rects>
      <tilted>0</tilted></_>
    <_>
      <rects>
        <_>
          0 16 2 2 -1.</_>
        <_>
          0 16 1 1 2.</_>
        <_>
          1 17 1 1 2.</_></rects>
      <tilted>0</tilted></_>
    <_>
      <rects>
        <_>
          0 19 8 5 -1.</_>
        <_>
          4 19 4 5 2.</_></rects>
      <tilted>0</tilted></_>
    <_>
      <rects>
        <_>
          1 0 6 9 -1.</_>
        <_>
          4 0 3 9 2.</_></rects>
      <tilted>0</tilted></_>
    <_>
      <rects>
        <_>
          1 0 4 16 -1.</_>
        <_>
          1 8 4 8 2.</_></rects>
      <tilted>0</tilted></_>
    <_>
      <rects>
        <_>
          1 1 3 4 -1.</_>
        <_>
          2 1 1 4 2.</_></rects>
      <tilted>0</tilted></_>
    <_>
      <rects>
        <_>
          1 1 20 8 -1.</_>
        <_>
          1 5 20 4 2.</_></rects>
      <tilted>0</tilted></_>
    <_>
      <rects>
        <_>
          1 2 10 22 -1.</_>
        <_>
          1 2 5 11 2.</_>
        <_>
          6 13 5 11 2.</_></rects>
      <tilted>0</tilted></_>
    <_>
      <rects>
        <_>
          1 4 2 2 -1.</_>
        <_>
          1 4 1 1 2.</_>
        <_>
          2 5 1 1 2.</_></rects>
      <tilted>0</tilted></_>
    <_>
      <rects>
        <_>
          1 4 1 6 -1.</_>
        <_>
          1 6 1 2 2.</_></rects>
      <tilted>0</tilted></_>
    <_>
      <rects>
        <_>
          1 11 2 1 -1.</_>
        <_>
          2 11 1 1 2.</_></rects>
      <tilted>0</tilted></_>
    <_>
      <rects>
        <_>
          1 11 10 1 -1.</_>
        <_>
          6 11 5 1 2.</_></rects>
      <tilted>0</tilted></_>
    <_>
      <rects>
        <_>
          1 12 2 1 -1.</_>
        <_>
          2 12 1 1 2.</_></rects>
      <tilted>0</tilted></_>
    <_>
      <rects>
        <_>
          1 12 8 12 -1.</_>
        <_>
          5 12 4 12 2.</_></rects>
      <tilted>0</tilted></_>
    <_>
      <rects>
        <_>
          1 13 22 2 -1.</_>
        <_>
          1 13 11 1 2.</_>
        <_>
          12 14 11 1 2.</_></rects>
      <tilted>0</tilted></_>
    <_>
      <rects>
        <_>
          1 14 12 2 -1.</_>
        <_>
          1 15 12 1 2.</_></rects>
      <tilted>0</tilted></_>
    <_>
      <rects>
        <_>
          1 17 4 4 -1.</_>
        <_>
          1 17 2 2 2.</_>
        <_>
          3 19 2 2 2.</_></rects>
      <tilted>0</tilted></_>
    <_>
      <rects>
        <_>
          1 17 6 7 -1.</_>
        <_>
          4 17 3 7 2.</_></rects>
      <tilted>0</tilted></_>
    <_>
      <rects>
        <_>
          1 20 4 4 -1.</_>
        <_>
          1 20 2 2 2.</_>
        <_>
          3 22 2 2 2.</_></rects>
      <tilted>0</tilted></_>
    <_>
      <rects>
        <_>
          1 22 16 2 -1.</_>
        <_>
          1 23 16 1 2.</_></rects>
      <tilted>0</tilted></_>
    <_>
      <rects>
        <_>
          2 0 6 7 -1.</_>
        <_>
          5 0 3 7 2.</_></rects>
      <tilted>0</tilted></_>
    <_>
      <rects>
        <_>
          2 0 5 21 -1.</_>
        <_>
          2 7 5 7 2.</_></rects>
      <tilted>0</tilted></_>
    <_>
      <rects>
        <_>
          2 0 15 4 -1.</_>
        <_>
          2 2 15 2 2.</_></rects>
      <tilted>0</tilted></_>
    <_>
      <rects>
        <_>
          2 1 8 2 -1.</_>
        <_>
          2 1 4 1 2.</_>
        <_>
          6 2 4 1 2.</_></rects>
      <tilted>0</tilted></_>
    <_>
      <rects>
        <_>
          2 1 12 2 -1.</_>
        <_>
          8 1 6 2 2.</_></rects>
      <tilted>0</tilted></_>
    <_>
      <rects>
        <_>
          2 2 6 2 -1.</_>
        <_>
          2 2 3 1 2.</_>
        <_>
          5 3 3 1 2.</_></rects>
      <tilted>0</tilted></_>
    <_>
      <rects>
        <_>
          2 8 4 1 -1.</_>
        <_>
          4 8 2 1 2.</_></rects>
      <tilted>0</tilted></_>
    <_>
      <rects>
        <_>
          2 9 2 2 -1.</_>
        <_>
          2 9 1 1 2.</_>
        <_>
          3 10 1 1 2.</_></rects>
      <tilted>0</tilted></_>
    <_>
      <rects>
        <_>
          2 13 2 10 -1.</_>
        <_>
          2 13 1 5 2.</_>
        <_>
          3 18 1 5 2.</_></rects>
      <tilted>0</tilted></_>
    <_>
      <rects>
        <_>
          2 14 2 4 -1.</_>
        <_>
          2 14 1 2 2.</_>
        <_>
          3 16 1 2 2.</_></rects>
      <tilted>0</tilted></_>
    <_>
      <rects>
        <_>
          2 22 14 2 -1.</_>
        <_>
          2 22 7 1 2.</_>
        <_>
          9 23 7 1 2.</_></rects>
      <tilted>0</tilted></_>
    <_>
      <rects>
        <_>
          3 0 10 10 -1.</_>
        <_>
          3 0 5 5 2.</_>
        <_>
          8 5 5 5 2.</_></rects>
      <tilted>0</tilted></_>
    <_>
      <rects>
        <_>
          3 0 21 1 -1.</_>
        <_>
          10 0 7 1 2.</_></rects>
      <tilted>0</tilted></_>
    <_>
      <rects>
        <_>
          3 0 11 8 -1.</_>
        <_>
          3 4 11 4 2.</_></rects>
      <tilted>0</tilted></_>
    <_>
      <rects>
        <_>
          3 0 15 4 -1.</_>
        <_>
          3 2 15 2 2.</_></rects>
      <tilted>0</tilted></_>
    <_>
      <rects>
        <_>
          3 15 2 8 -1.</_>
        <_>
          3 15 1 4 2.</_>
        <_>
          4 19 1 4 2.</_></rects>
      <tilted>0</tilted></_>
    <_>
      <rects>
        <_>
          3 16 8 6 -1.</_>
        <_>
          3 16 4 3 2.</_>
        <_>
          7 19 4 3 2.</_></rects>
      <tilted>0</tilted></_>
    <_>
      <rects>
        <_>
          3 21 12 1 -1.</_>
        <_>
          9 21 6 1 2.</_></rects>
      <tilted>0</tilted></_>
    <_>
      <rects>
        <_>
          4 0 16 2 -1.</_>
        <_>
          4 1 16 1 2.</_></rects>
      <tilted>0</tilted></_>
    <_>
      <rects>
        <_>
          4 0 17 6 -1.</_>
        <_>
          4 3 17 3 2.</_></rects>
      <tilted>0</tilted></_>
    <_>
      <rects>
        <_>
          4 2 4 4 -1.</_>
        <_>
          4 2 2 2 2.</_>
        <_>
          6 4 2 2 2.</_></rects>
      <tilted>0</tilted></_>
    <_>
      <rects>
        <_>
          4 10 12 4 -1.</_>
        <_>
          4 10 6 2 2.</_>
        <_>
          10 12 6 2 2.</_></rects>
      <tilted>0</tilted></_>
    <_>
      <rects>
        <_>
          4 13 11 4 -1.</_>
        <_>
          4 15 11 2 2.</_></rects>
      <tilted>0</tilted></_>
    <_>
      <rects>
        <_>
          4 13 17 2 -1.</_>
        <_>
          4 14 17 1 2.</_></rects>
      <tilted>0</tilted></_>
    <_>
      <rects>
        <_>
          4 14 8 2 -1.</_>
        <_>
          4 15 8 1 2.</_></rects>
      <tilted>0</tilted></_>
    <_>
      <rects>
        <_>
          4 19 3 5 -1.</_>
        <_>
          5 19 1 5 2.</_></rects>
      <tilted>0</tilted></_>
    <_>
      <rects>
        <_>
          5 4 9 1 -1.</_>
        <_>
          8 4 3 1 2.</_></rects>
      <tilted>0</tilted></_>
    <_>
      <rects>
        <_>
          5 4 12 20 -1.</_>
        <_>
          5 14 12 10 2.</_></rects>
      <tilted>0</tilted></_>
    <_>
      <rects>
        <_>
          5 11 3 2 -1.</_>
        <_>
          5 12 3 1 2.</_></rects>
      <tilted>0</tilted></_>
    <_>
      <rects>
        <_>
          5 12 1 2 -1.</_>
        <_>
          5 13 1 1 2.</_></rects>
      <tilted>0</tilted></_>
    <_>
      <rects>
        <_>
          5 12 2 4 -1.</_>
        <_>
          5 12 1 2 2.</_>
        <_>
          6 14 1 2 2.</_></rects>
      <tilted>0</tilted></_>
    <_>
      <rects>
        <_>
          5 13 3 8 -1.</_>
        <_>
          5 17 3 4 2.</_></rects>
      <tilted>0</tilted></_>
    <_>
      <rects>
        <_>
          5 15 14 2 -1.</_>
        <_>
          5 16 14 1 2.</_></rects>
      <tilted>0</tilted></_>
    <_>
      <rects>
        <_>
          6 0 14 2 -1.</_>
        <_>
          6 0 7 1 2.</_>
        <_>
          13 1 7 1 2.</_></rects>
      <tilted>0</tilted></_>
    <_>
      <rects>
        <_>
          6 5 2 15 -1.</_>
        <_>
          6 10 2 5 2.</_></rects>
      <tilted>0</tilted></_>
    <_>
      <rects>
        <_>
          6 5 8 6 -1.</_>
        <_>
          6 5 4 3 2.</_>
        <_>
          10 8 4 3 2.</_></rects>
      <tilted>0</tilted></_>
    <_>
      <rects>
        <_>
          6 7 14 8 -1.</_>
        <_>
          6 7 7 4 2.</_>
        <_>
          13 11 7 4 2.</_></rects>
      <tilted>0</tilted></_>
    <_>
      <rects>
        <_>
          6 8 14 14 -1.</_>
        <_>
          6 15 14 7 2.</_></rects>
      <tilted>0</tilted></_>
    <_>
      <rects>
        <_>
          6 14 1 8 -1.</_>
        <_>
          6 18 1 4 2.</_></rects>
      <tilted>0</tilted></_>
    <_>
      <rects>
        <_>
          6 15 2 4 -1.</_>
        <_>
          6 15 1 2 2.</_>
        <_>
          7 17 1 2 2.</_></rects>
      <tilted>0</tilted></_>
    <_>
      <rects>
        <_>
          6 17 17 2 -1.</_>
        <_>
          6 18 17 1 2.</_></rects>
      <tilted>0</tilted></_>
    <_>
      <rects>
        <_>
          7 0 8 4 -1.</_>
        <_>
          7 2 8 2 2.</_></rects>
      <tilted>0</tilted></_>
    <_>
      <rects>
        <_>
          7 1 6 10 -1.</_>
        <_>
          7 6 6 5 2.</_></rects>
      <tilted>0</tilted></_>
    <_>
      <rects>
        <_>
          7 5 15 13 -1.</_>
        <_>
          12 5 5 13 2.</_></rects>
      <tilted>0</tilted></_>
    <_>
      <rects>
        <_>
          7 10 11 4 -1.</_>
        <_>
          7 12 11 2 2.</_></rects>
      <tilted>0</tilted></_>
    <_>
      <rects>
        <_>
          7 11 12 2 -1.</_>
        <_>
          7 12 12 1 2.</_></rects>
      <tilted>0</tilted></_>
    <_>
      <rects>
        <_>
          7 12 2 1 -1.</_>
        <_>
          8 12 1 1 2.</_></rects>
      <tilted>0</tilted></_>
    <_>
      <rects>
        <_>
          7 14 1 4 -1.</_>
        <_>
          7 16 1 2 2.</_></rects>
      <tilted>0</tilted></_>
    <_>
      <rects>
        <_>
          7 16 2 4 -1.</_>
        <_>
          7 18 2 2 2.</_></rects>
      <tilted>0</tilted></_>
    <_>
      <rects>
        <_>
          7 18 7 2 -1.</_>
        <_>
          7 19 7 1 2.</_></rects>
      <tilted>0</tilted></_>
    <_>
      <rects>
        <_>
          8 0 15 18 -1.</_>
        <_>
          8 9 15 9 2.</_></rects>
      <tilted>0</tilted></_>
    <_>
      <rects>
        <_>
          8 4 2 14 -1.</_>
        <_>
          9 4 1 14 2.</_></rects>
      <tilted>0</tilted></_>
    <_>
      <rects>
        <_>
          8 6 10 8 -1.</_>
        <_>
          8 6 5 4 2.</_>
        <_>
          13 10 5 4 2.</_></rects>
      <tilted>0</tilted></_>
    <_>
      <rects>
        <_>
          8 8 12 4 -1.</_>
        <_>
          8 10 12 2 2.</_></rects>
      <tilted>0</tilted></_>
    <_>
      <rects>
        <_>
          8 15 1 2 -1.</_>
        <_>
          8 16 1 1 2.</_></rects>
      <tilted>0</tilted></_>
    <_>
      <rects>
        <_>
          8 16 2 4 -1.</_>
        <_>
          8 16 1 2 2.</_>
        <_>
          9 18 1 2 2.</_></rects>
      <tilted>0</tilted></_>
    <_>
      <rects>
        <_>
          8 16 16 2 -1.</_>
        <_>
          8 17 16 1 2.</_></rects>
      <tilted>0</tilted></_>
    <_>
      <rects>
        <_>
          8 17 2 7 -1.</_>
        <_>
          9 17 1 7 2.</_></rects>
      <tilted>0</tilted></_>
    <_>
      <rects>
        <_>
          9 1 8 8 -1.</_>
        <_>
          9 1 4 4 2.</_>
        <_>
          13 5 4 4 2.</_></rects>
      <tilted>0</tilted></_>
    <_>
      <rects>
        <_>
          9 1 10 2 -1.</_>
        <_>
          14 1 5 2 2.</_></rects>
      <tilted>0</tilted></_>
    <_>
      <rects>
        <_>
          9 11 15 2 -1.</_>
        <_>
          14 11 5 2 2.</_></rects>
      <tilted>0</tilted></_>
    <_>
      <rects>
        <_>
          9 12 2 2 -1.</_>
        <_>
          9 12 1 1 2.</_>
        <_>
          10 13 1 1 2.</_></rects>
      <tilted>0</tilted></_>
    <_>
      <rects>
        <_>
          9 12 3 2 -1.</_>
        <_>
          9 13 3 1 2.</_></rects>
      <tilted>0</tilted></_>
    <_>
      <rects>
        <_>
          9 15 1 2 -1.</_>
        <_>
          9 16 1 1 2.</_></rects>
      <tilted>0</tilted></_>
    <_>
      <rects>
        <_>
          9 15 5 4 -1.</_>
        <_>
          9 17 5 2 2.</_></rects>
      <tilted>0</tilted></_>
    <_>
      <rects>
        <_>
          9 19 6 4 -1.</_>
        <_>
          11 19 2 4 2.</_></rects>
      <tilted>0</tilted></_>
    <_>
      <rects>
        <_>
          10 11 2 4 -1.</_>
        <_>
          10 11 1 2 2.</_>
        <_>
          11 13 1 2 2.</_></rects>
      <tilted>0</tilted></_>
    <_>
      <rects>
        <_>
          10 12 2 3 -1.</_>
        <_>
          11 12 1 3 2.</_></rects>
      <tilted>0</tilted></_>
    <_>
      <rects>
        <_>
          10 13 2 6 -1.</_>
        <_>
          10 13 1 3 2.</_>
        <_>
          11 16 1 3 2.</_></rects>
      <tilted>0</tilted></_>
    <_>
      <rects>
        <_>
          10 13 12 3 -1.</_>
        <_>
          16 13 6 3 2.</_></rects>
      <tilted>0</tilted></_>
    <_>
      <rects>
        <_>
          10 14 1 2 -1.</_>
        <_>
          10 15 1 1 2.</_></rects>
      <tilted>0</tilted></_>
    <_>
      <rects>
        <_>
          10 16 8 2 -1.</_>
        <_>
          10 17 8 1 2.</_></rects>
      <tilted>0</tilted></_>
    <_>
      <rects>
        <_>
          11 3 2 12 -1.</_>
        <_>
          11 3 1 6 2.</_>
        <_>
          12 9 1 6 2.</_></rects>
      <tilted>0</tilted></_>
    <_>
      <rects>
        <_>
          11 4 6 1 -1.</_>
        <_>
          13 4 2 1 2.</_></rects>
      <tilted>0</tilted></_>
    <_>
      <rects>
        <_>
          11 7 9 3 -1.</_>
        <_>
          11 8 9 1 2.</_></rects>
      <tilted>0</tilted></_>
    <_>
      <rects>
        <_>
          11 12 2 2 -1.</_>
        <_>
          11 12 1 1 2.</_>
        <_>
          12 13 1 1 2.</_></rects>
      <tilted>0</tilted></_>
    <_>
      <rects>
        <_>
          11 14 10 2 -1.</_>
        <_>
          11 15 10 1 2.</_></rects>
      <tilted>0</tilted></_>
    <_>
      <rects>
        <_>
          11 15 2 6 -1.</_>
        <_>
          12 15 1 6 2.</_></rects>
      <tilted>0</tilted></_>
    <_>
      <rects>
        <_>
          11 16 2 2 -1.</_>
        <_>
          12 16 1 2 2.</_></rects>
      <tilted>0</tilted></_>
    <_>
      <rects>
        <_>
          12 2 12 1 -1.</_>
        <_>
          16 2 4 1 2.</_></rects>
      <tilted>0</tilted></_>
    <_>
      <rects>
        <_>
          12 2 12 8 -1.</_>
        <_>
          12 2 6 4 2.</_>
        <_>
          18 6 6 4 2.</_></rects>
      <tilted>0</tilted></_>
    <_>
      <rects>
        <_>
          12 3 2 16 -1.</_>
        <_>
          12 3 1 8 2.</_>
        <_>
          13 11 1 8 2.</_></rects>
      <tilted>0</tilted></_>
    <_>
      <rects>
        <_>
          12 5 1 8 -1.</_>
        <_>
          12 9 1 4 2.</_></rects>
      <tilted>0</tilted></_>
    <_>
      <rects>
        <_>
          12 9 2 4 -1.</_>
        <_>
          12 11 2 2 2.</_></rects>
      <tilted>0</tilted></_>
    <_>
      <rects>
        <_>
          12 17 2 3 -1.</_>
        <_>
          13 17 1 3 2.</_></rects>
      <tilted>0</tilted></_>
    <_>
      <rects>
        <_>
          12 18 10 6 -1.</_>
        <_>
          12 18 5 3 2.</_>
        <_>
          17 21 5 3 2.</_></rects>
      <tilted>0</tilted></_>
    <_>
      <rects>
        <_>
          13 2 4 1 -1.</_>
        <_>
          15 2 2 1 2.</_></rects>
      <tilted>0</tilted></_>
    <_>
      <rects>
        <_>
          13 2 2 6 -1.</_>
        <_>
          13 4 2 2 2.</_></rects>
      <tilted>0</tilted></_>
    <_>
      <rects>
        <_>
          13 2 6 20 -1.</_>
        <_>
          13 2 3 10 2.</_>
        <_>
          16 12 3 10 2.</_></rects>
      <tilted>0</tilted></_>
    <_>
      <rects>
        <_>
          13 4 4 4 -1.</_>
        <_>
          13 4 2 2 2.</_>
        <_>
          15 6 2 2 2.</_></rects>
      <tilted>0</tilted></_>
    <_>
      <rects>
        <_>
          13 5 2 1 -1.</_>
        <_>
          14 5 1 1 2.</_></rects>
      <tilted>0</tilted></_>
    <_>
      <rects>
        <_>
          13 9 4 4 -1.</_>
        <_>
          13 11 4 2 2.</_></rects>
      <tilted>0</tilted></_>
    <_>
      <rects>
        <_>
          13 11 7 12 -1.</_>
        <_>
          13 15 7 4 2.</_></rects>
      <tilted>0</tilted></_>
    <_>
      <rects>
        <_>
          13 14 2 8 -1.</_>
        <_>
          13 18 2 4 2.</_></rects>
      <tilted>0</tilted></_>
    <_>
      <rects>
        <_>
          13 16 2 2 -1.</_>
        <_>
          13 17 2 1 2.</_></rects>
      <tilted>0</tilted></_>
    <_>
      <rects>
        <_>
          13 17 3 2 -1.</_>
        <_>
          13 18 3 1 2.</_></rects>
      <tilted>0</tilted></_>
    <_>
      <rects>
        <_>
          14 2 10 22 -1.</_>
        <_>
          14 2 5 11 2.</_>
        <_>
          19 13 5 11 2.</_></rects>
      <tilted>0</tilted></_>
    <_>
      <rects>
        <_>
          14 3 4 11 -1.</_>
        <_>
          16 3 2 11 2.</_></rects>
      <tilted>0</tilted></_>
    <_>
      <rects>
        <_>
          14 6 2 4 -1.</_>
        <_>
          14 6 1 2 2.</_>
        <_>
          15 8 1 2 2.</_></rects>
      <tilted>0</tilted></_>
    <_>
      <rects>
        <_>
          14 7 6 4 -1.</_>
        <_>
          17 7 3 4 2.</_></rects>
      <tilted>0</tilted></_>
    <_>
      <rects>
        <_>
          14 13 9 2 -1.</_>
        <_>
          14 14 9 1 2.</_></rects>
      <tilted>0</tilted></_>
    <_>
      <rects>
        <_>
          14 14 1 2 -1.</_>
        <_>
          14 15 1 1 2.</_></rects>
      <tilted>0</tilted></_>
    <_>
      <rects>
        <_>
          14 14 10 10 -1.</_>
        <_>
          14 14 5 5 2.</_>
        <_>
          19 19 5 5 2.</_></rects>
      <tilted>0</tilted></_>
    <_>
      <rects>
        <_>
          14 15 4 4 -1.</_>
        <_>
          14 15 2 2 2.</_>
        <_>
          16 17 2 2 2.</_></rects>
      <tilted>0</tilted></_>
    <_>
      <rects>
        <_>
          14 16 10 2 -1.</_>
        <_>
          14 17 10 1 2.</_></rects>
      <tilted>0</tilted></_>
    <_>
      <rects>
        <_>
          14 17 10 6 -1.</_>
        <_>
          14 17 5 3 2.</_>
        <_>
          19 20 5 3 2.</_></rects>
      <tilted>0</tilted></_>
    <_>
      <rects>
        <_>
          14 18 2 2 -1.</_>
        <_>
          14 19 2 1 2.</_></rects>
      <tilted>0</tilted></_>
    <_>
      <rects>
        <_>
          15 0 8 6 -1.</_>
        <_>
          15 0 4 3 2.</_>
        <_>
          19 3 4 3 2.</_></rects>
      <tilted>0</tilted></_>
    <_>
      <rects>
        <_>
          15 6 2 15 -1.</_>
        <_>
          15 11 2 5 2.</_></rects>
      <tilted>0</tilted></_>
    <_>
      <rects>
        <_>
          15 8 3 14 -1.</_>
        <_>
          15 15 3 7 2.</_></rects>
      <tilted>0</tilted></_>
    <_>
      <rects>
        <_>
          15 17 2 2 -1.</_>
        <_>
          15 18 2 1 2.</_></rects>
      <tilted>0</tilted></_>
    <_>
      <rects>
        <_>
          16 0 4 24 -1.</_>
        <_>
          16 8 4 8 2.</_></rects>
      <tilted>0</tilted></_>
    <_>
      <rects>
        <_>
          16 6 8 2 -1.</_>
        <_>
          20 6 4 2 2.</_></rects>
      <tilted>0</tilted></_>
    <_>
      <rects>
        <_>
          16 7 8 3 -1.</_>
        <_>
          20 7 4 3 2.</_></rects>
      <tilted>0</tilted></_>
    <_>
      <rects>
        <_>
          16 12 1 2 -1.</_>
        <_>
          16 13 1 1 2.</_></rects>
      <tilted>0</tilted></_>
    <_>
      <rects>
        <_>
          16 15 2 6 -1.</_>
        <_>
          16 15 1 3 2.</_>
        <_>
          17 18 1 3 2.</_></rects>
      <tilted>0</tilted></_>
    <_>
      <rects>
        <_>
          16 15 8 6 -1.</_>
        <_>
          16 15 4 3 2.</_>
        <_>
          20 18 4 3 2.</_></rects>
      <tilted>0</tilted></_>
    <_>
      <rects>
        <_>
          17 15 1 4 -1.</_>
        <_>
          17 17 1 2 2.</_></rects>
      <tilted>0</tilted></_>
    <_>
      <rects>
        <_>
          18 3 2 1 -1.</_>
        <_>
          19 3 1 1 2.</_></rects>
      <tilted>0</tilted></_>
    <_>
      <rects>
        <_>
          18 13 2 2 -1.</_>
        <_>
          18 13 1 1 2.</_>
        <_>
          19 14 1 1 2.</_></rects>
      <tilted>0</tilted></_>
    <_>
      <rects>
        <_>
          18 13 5 2 -1.</_>
        <_>
          18 14 5 1 2.</_></rects>
      <tilted>0</tilted></_>
    <_>
      <rects>
        <_>
          18 14 2 2 -1.</_>
        <_>
          18 15 2 1 2.</_></rects>
      <tilted>0</tilted></_>
    <_>
      <rects>
        <_>
          18 16 6 8 -1.</_>
        <_>
          18 16 3 4 2.</_>
        <_>
          21 20 3 4 2.</_></rects>
      <tilted>0</tilted></_>
    <_>
      <rects>
        <_>
          18 21 4 2 -1.</_>
        <_>
          18 21 2 1 2.</_>
        <_>
          20 22 2 1 2.</_></rects>
      <tilted>0</tilted></_>
    <_>
      <rects>
        <_>
          19 5 4 1 -1.</_>
        <_>
          21 5 2 1 2.</_></rects>
      <tilted>0</tilted></_>
    <_>
      <rects>
        <_>
          19 10 2 5 -1.</_>
        <_>
          20 10 1 5 2.</_></rects>
      <tilted>0</tilted></_>
    <_>
      <rects>
        <_>
          19 18 2 6 -1.</_>
        <_>
          19 21 2 3 2.</_></rects>
      <tilted>0</tilted></_>
    <_>
      <rects>
        <_>
          20 0 2 4 -1.</_>
        <_>
          20 0 1 2 2.</_>
        <_>
          21 2 1 2 2.</_></rects>
      <tilted>0</tilted></_>
    <_>
      <rects>
        <_>
          20 0 4 9 -1.</_>
        <_>
          22 0 2 9 2.</_></rects>
      <tilted>0</tilted></_>
    <_>
      <rects>
        <_>
          20 0 3 3 -1.</_>
        <_>
          20 1 3 1 2.</_></rects>
      <tilted>0</tilted></_>
    <_>
      <rects>
        <_>
          20 1 4 18 -1.</_>
        <_>
          22 1 2 18 2.</_></rects>
      <tilted>0</tilted></_>
    <_>
      <rects>
        <_>
          20 6 4 4 -1.</_>
        <_>
          22 6 2 4 2.</_></rects>
      <tilted>0</tilted></_>
    <_>
      <rects>
        <_>
          20 16 4 4 -1.</_>
        <_>
          20 16 2 2 2.</_>
        <_>
          22 18 2 2 2.</_></rects>
      <tilted>0</tilted></_>
    <_>
      <rects>
        <_>
          20 16 4 8 -1.</_>
        <_>
          20 16 2 4 2.</_>
        <_>
          22 20 2 4 2.</_></rects>
      <tilted>0</tilted></_>
    <_>
      <rects>
        <_>
          20 17 4 6 -1.</_>
        <_>
          20 17 2 3 2.</_>
        <_>
          22 20 2 3 2.</_></rects>
      <tilted>0</tilted></_>
    <_>
      <rects>
        <_>
          21 2 1 3 -1.</_>
        <_>
          21 3 1 1 2.</_></rects>
      <tilted>0</tilted></_>
    <_>
      <rects>
        <_>
          21 3 2 6 -1.</_>
        <_>
          21 3 1 3 2.</_>
        <_>
          22 6 1 3 2.</_></rects>
      <tilted>0</tilted></_>
    <_>
      <rects>
        <_>
          21 19 2 4 -1.</_>
        <_>
          21 19 1 2 2.</_>
        <_>
          22 21 1 2 2.</_></rects>
      <tilted>0</tilted></_>
    <_>
      <rects>
        <_>
          22 0 2 22 -1.</_>
        <_>
          22 0 1 11 2.</_>
        <_>
          23 11 1 11 2.</_></rects>
      <tilted>0</tilted></_>
    <_>
      <rects>
        <_>
          22 4 2 8 -1.</_>
        <_>
          22 4 1 4 2.</_>
        <_>
          23 8 1 4 2.</_></rects>
      <tilted>0</tilted></_></features></cascade>
</opencv_storage>
